{"levels": [{"inputs": [0.4238389190331835, 0, 0, 0, 0], "outputs": [1, 0, 0, 0, 0, 0], "weights": [[0.2059806633740915, -0.39945677372063204, 0.5680075406366352, 0.2041566294413546, 0.34430139927282655, -0.03313713258361406], [-0.34783753586461286, 0.44145702782183394, -0.4952882465724504, -0.3972668891744733, -0.7016341407749382, -0.6171889650116513], [0.9455255394375484, 0.12170920286503994, 0.702610668529682, -0.9277475361097527, -0.151102740462842, -0.6896042439869663], [-0.5427652693474487, 0.8017647803355403, 0.32150383496161794, -0.44800522097602125, 0.42034476986071745, 0.08315180374826725], [0.09669548067736677, 0.7680373204824231, 0.268832339361208, -0.3037254816066062, -0.8373574789233611, 0.988523532252868]], "biases": [-0.9040377989350878, 0.38342480278855007, 0.3255230426362288, 0.9417100578415449, 0.8885757607861182, 0.8404215235513606]}, {"inputs": [1, 0, 0, 0, 0, 0], "outputs": [1, 0, 0, 0], "weights": [[0.6977322768400285, -0.14943828028121553, 0.4699304368702675, 0.4742806981517014], [0.8193780450639643, -0.21395286774462208, 0.4825847547885378, -0.4818657383372953], [-0.5497604545723136, -0.4941246456943831, -0.2224255852584971, 0.86710243084102], [-0.02295783626769854, -0.31396085248253214, -0.06338985514639162, -0.4861715220415288], [0.5836321828160442, -0.9934965854571709, -0.8315895138831675, -0.35346455652019393], [-0.05901587773212991, 0.9909979937308437, -0.12571445931343028, -0.7440744405548123]], "biases": [-0.7804432365070599, 0.3090247359238856, 0.8248717382133184, 0.7791365725088053]}]}